solver_type L2R_LR
nr_class 2
label 1 0
nr_feature 99
bias -1
w
-0.1936911657937312 
-0.06831069248061987 
0.156311715913162 
0.2326986751560374 
0.3834093305838812 
0.1292533659311462 
-0.1478947042213768 
0.05282529088756068 
-0.1161124401247665 
0.01541757222771715 
0.1126740297552509 
-0.09440308288543683 
-0.02139163544970443 
0.1224909354649594 
-0.0955201567105373 
-0.1296506501858147 
0.2124175274360607 
0.2696366948025901 
0.3294537805136437 
-0.4319211120285056 
0.2233062028851078 
-0.2266232797126365 
0.2579228647293118 
-0.2314054766539657 
-0.1279695063958934 
-0.0921279310494553 
0.07985894816620727 
-0.5768152512179925 
0.1004191876335961 
0.04351293207913758 
-0.1230321521649483 
0.08278910631043973 
0.2849991125913091 
-0.09481262074443364 
0.06631371507498453 
0.3209414745687443 
0.1762691796395342 
-0.5367126215932208 
-0.3252258459732387 
-0.1568078632390512 
-0.473239594934601 
-0.2938050263919695 
0.1101993782678688 
-0.3997554522059273 
-1.668577196022353 
-0.414701693888689 
-0.2223496354028343 
0.4497387297158763 
0.2303566640021291 
0.2519642874953572 
-0.1308132918429041 
-0.6853621062318497 
-0.02820639517840718 
0.2926726035831835 
0.2114759551126964 
0.0451454199298062 
0.009382623820660319 
0.2395942705929667 
-0.5002764192643776 
0.2388420487727832 
-0.2937830484292791 
0.5999810714946272 
-0.8284008441331269 
-0.0790586376388832 
-0.1522465962037435 
-0.4321059873159549 
-0.253342291182337 
0.21470019801606 
0.4498936918828521 
-0.05717292093260799 
0.1052640543402321 
0.4591838238902737 
0.01549844447461096 
-1.888540241110712 
0.06740460049033585 
0.1772922395984238 
0.9486556437574089 
-0.4709062271138548 
-0.5058915213936565 
0.1461354461527963 
-0.8862729799449293 
0.4148719226574648 
0.3604096541325542 
-0.03455296810189122 
0.276913397193282 
0.1969825054873026 
0.4775389509590079 
-0.7199649261123942 
0.01260330994435445 
0.837206486390024 
-0.3405121509830587 
0.4980675583842135 
-0.4369548960731044 
-0.2803380131706654 
-0.4657100377131764 
0.1297729787450053 
-0.5108827058651791 
0.2137582627463789 
0.120833018002419 
